// #### Generated By: http://www.cufonfonts.com ####
/*!
 * The following copyright notice may not be removed under any circumstances.
 * 
 * Copyright:
 * Typeface: Copyright ©1995 International Typeface Corporation. Data: Copyright ©
 * 1995 Microsoft Corportation. All rights reserved.
 * 
 * Trademark:
 * ITC Eras is a registered trademark of International Typeface Corporation.
 */
Cufon.registerFont({"w":1098,"face":{"font-family":"Eras Light ITC","font-weight":400,"font-stretch":"normal","units-per-em":"2048","panose-1":"2 11 4 2 3 5 4 2 8 4","ascent":"1638","descent":"-410","x-height":"20","bbox":"-371 -1682 2054 485","underline-thickness":"102","underline-position":"-103","unicode-range":"U+0020-U+20AC"},"glyphs":{" ":{"w":512},"!":{"d":"192,-208r28,-1036v1,-51,1,-91,1,-121r91,0r-10,144r-46,1013v-22,-3,-43,-3,-64,0xm282,-109r-6,109r-111,0r5,-109r112,0","w":489},"\"":{"d":"143,-1051v1,-47,2,-100,2,-157v0,-46,-1,-98,-2,-157r91,0v-13,111,-22,216,-27,314v-21,-3,-43,-3,-64,0xm319,-1051v1,-47,2,-100,2,-157v0,-46,-1,-98,-3,-157r91,0v-13,111,-22,216,-27,314v-21,-3,-43,-3,-63,0","w":498},"#":{"d":"331,-531r-229,3v5,-15,9,-36,13,-63r226,3r33,-189r-229,3v4,-13,8,-34,13,-63r226,3r91,-531r77,0r-96,531r256,0r91,-531v25,1,51,1,76,0r-95,531r226,-3v-5,21,-10,42,-13,63r-223,-3r-33,189r226,-3v-5,18,-10,39,-13,63r-223,-3r-91,531r-77,0r96,-532r-256,0r-91,532v-27,-1,-50,-1,-76,0xm446,-778r-33,190r256,0r33,-190r-256,0"},"$":{"d":"487,5v-137,-11,-194,-27,-300,-72v0,-31,-2,-61,-5,-90v105,53,167,92,306,95v172,4,299,-93,299,-255v0,-82,-35,-128,-78,-175v-30,-34,-244,-213,-329,-288v-91,-79,-192,-230,-127,-394v46,-116,136,-173,291,-191r1,-159v36,3,46,3,81,0v-7,61,-10,114,-11,157v94,7,133,16,212,39v1,31,4,60,9,87v-91,-37,-145,-54,-248,-57v-186,-6,-316,129,-262,306v44,145,198,232,303,330v115,107,285,215,221,436v-39,133,-134,198,-292,226r1,159v-36,-3,-46,-3,-83,0"},"%":{"d":"332,-500v-259,1,-286,-308,-244,-560v28,-165,94,-319,280,-319v199,0,255,181,255,392v0,239,-55,486,-291,487xm133,-874v0,178,46,321,201,321v196,0,221,-238,226,-442v3,-139,-24,-232,-91,-293v-64,-58,-161,-48,-223,11v-82,77,-114,230,-113,403xm313,0r563,-890r295,-475v25,1,53,1,77,0r-537,849r-320,516v-24,-1,-55,-1,-78,0xm1193,14v-259,0,-288,-310,-245,-562v28,-165,95,-318,281,-318v198,0,255,181,255,392v0,239,-55,488,-291,488xm994,-360v0,178,46,320,201,320v196,0,222,-238,226,-442v3,-138,-24,-232,-91,-292v-64,-57,-162,-49,-224,10v-82,77,-113,230,-112,404","w":1546},"&":{"d":"1016,-251v48,-89,62,-176,70,-304r70,0v-3,135,-37,257,-92,348r240,207r-104,0r-174,-153v-99,111,-242,173,-451,173v-253,0,-455,-111,-455,-346v0,-139,69,-221,152,-287v35,-27,98,-68,188,-122v-77,-110,-149,-185,-149,-347v0,-194,149,-304,351,-304v87,0,141,16,212,48v-1,26,-1,45,0,72v-61,-44,-131,-66,-209,-66v-215,0,-353,186,-259,383v119,250,396,510,610,698xm187,-331v-7,332,541,368,741,187v14,-14,30,-31,48,-53v-167,-148,-327,-313,-482,-496v-137,85,-239,138,-294,278v-10,27,-13,55,-13,84","w":1342},"'":{"d":"143,-1051v1,-47,2,-100,2,-157v0,-46,-1,-98,-2,-157r91,0v-13,111,-22,216,-27,314v-21,-3,-43,-3,-64,0","w":323},"(":{"d":"279,444r-54,-268v-58,-354,-46,-768,33,-1108v48,-205,85,-350,114,-433v23,1,40,1,62,0r-42,147v-13,47,-27,99,-40,154v-90,367,-120,892,-49,1306r40,202v-21,-3,-44,-3,-64,0","w":609},")":{"d":"115,444v162,-454,220,-1048,134,-1616r-34,-193v21,1,41,1,61,0v94,418,122,886,34,1325v-36,183,-80,344,-131,484v-21,-3,-44,-3,-64,0","w":604},"*":{"d":"273,-783r207,-243r-292,-82v12,-27,22,-53,30,-79r281,112r2,-311v36,3,46,3,81,0r-31,311r294,-107v6,30,13,56,21,77r-302,81r184,238v-28,18,-52,35,-71,50r-155,-259r-185,259v-17,-14,-38,-30,-64,-47","w":1040},"+":{"d":"120,-670v3,-26,5,-48,5,-66r398,5r9,-408v24,3,48,3,71,0v-3,52,-9,188,-19,408r407,-5v-3,23,-5,45,-5,66r-404,-6r-9,409v-25,-3,-47,-3,-72,0v3,-43,10,-179,20,-409"},",":{"d":"31,204v45,-125,80,-229,104,-312r136,0r-105,174r-79,138v-23,-3,-33,-3,-56,0","w":399},"-":{"d":"-3,-490v3,-27,5,-51,5,-71v73,3,153,5,240,5v85,0,165,-2,241,-5v-3,27,-5,50,-5,71v-143,-8,-333,-8,-481,0","w":494},".":{"d":"237,-109r-6,109r-111,0r5,-109r112,0","w":399},"\/":{"d":"-148,444r292,-618r496,-1071r52,-120r84,0r-739,1584r-100,225v-34,-3,-52,-3,-85,0","w":824},"0":{"d":"530,20v-417,2,-460,-484,-395,-885v45,-277,143,-521,453,-521v420,0,452,518,382,922v-45,256,-148,483,-440,484xm726,-1290v-95,-63,-224,-47,-316,20v-168,123,-219,405,-219,695v-1,226,48,408,187,495v98,61,232,58,323,-9v161,-118,215,-402,215,-682v0,-252,-45,-424,-190,-519"},"1":{"d":"519,0v9,-109,16,-237,21,-384r18,-488v7,-178,11,-315,12,-410r-115,75v3,-27,5,-52,5,-77r130,-81v22,1,43,1,64,0r-43,965r-6,266v0,35,1,80,2,134r-88,0"},"2":{"d":"213,-1349v328,-71,828,-77,757,324v-14,81,-46,128,-93,197v-172,253,-449,543,-670,770r530,0r190,-10v-3,20,-4,43,-4,68r-791,0v2,-27,2,-49,2,-76r243,-256v95,-103,174,-188,231,-258v116,-142,241,-258,290,-434v56,-204,-114,-305,-321,-306v-101,0,-227,19,-376,57v5,-25,9,-51,12,-76"},"3":{"d":"957,-386v-7,329,-317,444,-667,396v-50,-7,-111,-21,-183,-41v-1,-27,-4,-54,-9,-82v168,73,387,108,568,35v116,-46,217,-155,217,-309v0,-261,-246,-312,-530,-286r3,-66v264,36,502,-75,502,-320v0,-193,-146,-270,-348,-270v-95,0,-196,15,-302,46v4,-21,7,-45,9,-71v114,-20,179,-30,287,-32v246,-2,431,88,431,321v0,216,-115,315,-312,356v195,4,338,119,334,323"},"4":{"d":"760,-523v-2,27,-11,402,-10,433v0,20,1,50,2,90r-89,0v5,-58,8,-116,11,-173v3,-57,8,-174,15,-350r-577,4v3,-23,4,-50,4,-81r439,-592r122,-173r123,0v-13,229,-25,491,-36,784r185,-1v15,0,31,-1,48,-4r-2,67v-56,-2,-134,-3,-235,-4xm691,-581r23,-617r1,-109r-535,726r511,0"},"5":{"d":"983,-438v0,379,-432,535,-820,422v-2,-28,-5,-52,-9,-72v109,31,161,47,276,47v273,0,472,-135,472,-397v0,-327,-384,-322,-696,-260r55,-585v2,-19,5,-46,10,-82r693,0v-2,24,-3,45,-3,69r-130,-8r-363,-7r-129,1r-53,547v101,-16,153,-23,248,-24v262,-5,449,105,449,349"},"6":{"d":"898,-417v2,-221,-160,-342,-393,-301v-31,5,-76,16,-133,31v14,-27,24,-50,31,-69v86,-17,156,-25,209,-25v229,0,369,144,369,370v0,264,-177,435,-453,431v-252,-3,-414,-144,-414,-394v0,-266,116,-455,230,-646v56,-94,138,-208,241,-345r104,0v-188,222,-314,412,-431,676v-63,143,-105,339,-32,487v46,93,156,165,298,163v230,-3,372,-146,374,-378"},"7":{"d":"256,0r265,-555r351,-752v-118,-1,-195,-2,-232,-2v-185,0,-341,4,-469,11v3,-21,4,-43,5,-67r763,0v-2,22,-3,48,-3,74r-519,1120r-71,171r-90,0"},"8":{"d":"93,-342v0,-212,118,-302,298,-353v-137,-44,-226,-134,-226,-304v0,-243,176,-387,429,-387v256,0,430,161,372,432v-29,135,-114,208,-245,255v171,37,268,125,268,320v0,269,-190,400,-460,400v-251,0,-436,-119,-436,-363xm896,-1047v0,-185,-130,-280,-312,-283v-198,-3,-341,136,-339,332v1,185,127,280,307,280v204,0,344,-125,344,-329xm911,-381v0,-194,-138,-282,-356,-282v-168,0,-274,53,-337,153v-30,48,-44,102,-44,162v0,202,162,312,363,312v214,0,374,-130,374,-345"},"9":{"d":"573,-1386v306,-4,467,227,399,546v-32,151,-112,319,-189,454v-49,85,-129,214,-242,386r-106,0v183,-246,341,-475,432,-738v31,-89,43,-171,43,-242v0,-211,-121,-350,-336,-350v-214,0,-362,133,-368,345v-6,237,176,341,420,303v36,-5,84,-16,147,-34v-9,21,-17,46,-24,73v-308,78,-631,-8,-624,-327v6,-260,187,-413,448,-416"},":":{"d":"286,-1010r-6,109r-111,0r5,-109r112,0xm237,-109r-6,109r-111,0r5,-109r112,0","w":399},";":{"d":"286,-1010v-4,37,-3,74,-6,109r-111,0r5,-109r112,0xm31,204v45,-125,80,-229,104,-312r136,0r-105,174r-79,138v-23,-3,-33,-3,-56,0","w":399},"<":{"d":"959,-1107r0,70r-811,353r811,352r0,70r-887,-390r0,-65","w":1032},"=":{"d":"143,-845v121,3,266,5,433,5v165,0,309,-2,433,-5v-3,23,-5,45,-5,66v-121,-4,-265,-6,-433,-6v-166,0,-310,2,-433,6v3,-26,5,-48,5,-66xm125,-627v121,4,266,6,433,6v165,0,309,-2,433,-6v-3,24,-5,46,-5,66v-121,-4,-265,-6,-433,-6v-165,0,-310,2,-433,6v3,-25,5,-47,5,-66"},">":{"d":"73,-262r0,-70r811,-352r-811,-353r0,-70r887,390r0,65","w":1032},"?":{"d":"726,-1042v58,-250,-210,-320,-463,-280v-46,6,-112,20,-198,40v7,-29,11,-54,14,-74v235,-42,570,-60,677,101v63,96,55,215,2,313v-75,139,-239,261,-314,394v-43,76,-30,227,-41,339v-21,-1,-46,-1,-66,0r13,-246v9,-98,22,-111,72,-177v23,-30,55,-65,92,-110v75,-90,184,-181,212,-300xm426,-109v-4,36,-4,73,-6,109r-111,0r5,-109r112,0","w":911},"@":{"d":"742,-323v-153,0,-255,-100,-252,-258v6,-300,238,-497,577,-432r80,16v-12,65,-21,122,-28,171r-40,299v-18,74,-5,144,65,144v91,0,142,-59,190,-121v68,-88,115,-204,115,-354v0,-319,-220,-466,-540,-466v-359,0,-574,191,-673,460v-35,97,-53,197,-53,300v1,346,211,524,560,523v171,-1,283,-35,389,-113v9,16,19,32,31,48v-111,81,-246,126,-430,126v-383,0,-638,-187,-627,-575v14,-498,297,-831,812,-831v359,0,607,178,607,529v0,225,-111,394,-249,489v-105,72,-285,58,-277,-86v-50,74,-145,131,-257,131xm569,-587v0,116,63,199,181,198v146,-2,229,-107,264,-225v13,-44,28,-153,48,-328v-278,-74,-493,95,-493,355","w":1618},"A":{"d":"1165,0v-34,-121,-180,-536,-226,-652r-565,0r-315,652r-92,0r630,-1239r61,-126r108,0r194,550r295,815r-90,0xm405,-717r512,0r-213,-587","w":1318},"B":{"d":"1044,-380v0,272,-206,380,-495,380r-400,0r21,-329r29,-858r0,-178r424,0v217,-7,325,48,381,196v13,35,17,74,17,113v0,191,-110,286,-254,342v163,45,277,133,277,334xm263,-739r197,0v188,-1,227,2,335,-50v108,-52,196,-227,131,-377v-45,-105,-129,-137,-298,-137r-345,0xm968,-387v0,-210,-155,-289,-384,-289r-325,0r-21,613v150,-3,378,10,489,-16v137,-31,241,-141,241,-308","w":1136},"C":{"d":"182,-667v0,389,216,626,604,626v110,0,233,-22,369,-65v-5,23,-10,51,-13,82v-113,28,-230,45,-352,45v-422,0,-684,-248,-684,-673v0,-496,318,-776,850,-729v92,8,119,13,206,31v1,27,4,56,9,86v-123,-40,-208,-60,-343,-60v-406,0,-646,257,-646,657","w":1250},"D":{"d":"149,0r29,-475r27,-779v1,-29,1,-66,1,-111v261,6,600,-25,804,30v234,63,378,289,375,591v-5,363,-196,631,-491,708v-211,55,-486,29,-745,36xm235,-63v118,2,211,3,279,3v137,-1,293,-10,398,-46v289,-98,472,-451,374,-843v-48,-190,-168,-320,-390,-344v-178,-19,-409,-8,-609,-10","w":1478},"E":{"d":"149,0v13,-181,25,-414,35,-700v10,-286,15,-507,15,-665r782,0v-3,27,-4,50,-4,71r-80,-6v-58,-5,-186,-4,-259,-4v-158,0,-278,0,-360,1r-20,573v101,2,193,3,277,3v100,0,223,-1,370,-3v-3,20,-4,42,-5,66r-377,-3v-44,0,-133,1,-268,3r-21,601r522,-1v44,-1,103,-3,178,-7v-3,27,-5,50,-5,71r-780,0","w":1073},"F":{"d":"936,-1294v-206,-15,-447,-7,-665,-9r-18,575r213,3v181,0,316,-1,404,-3v-3,19,-4,42,-5,69r-344,-4v-86,0,-177,1,-272,4v-8,286,-12,506,-12,659r-88,0r18,-348r25,-868v1,-49,1,-98,1,-149r747,0v-3,27,-4,50,-4,71","w":1019},"G":{"d":"182,-635v-5,433,302,628,754,589v121,-11,211,-29,313,-63r24,-581r-215,1r-151,6v2,-25,3,-45,3,-69r444,0r-17,316r-11,386v-167,41,-326,71,-496,71v-437,0,-724,-222,-724,-661v0,-533,389,-809,972,-735v64,7,139,21,225,40v1,34,4,65,8,92v-157,-51,-265,-81,-433,-81v-436,0,-691,259,-696,689","w":1495},"H":{"d":"149,0v16,-287,28,-556,36,-805v8,-249,12,-436,12,-560r87,0r-27,639r930,0r19,-502v1,-28,2,-74,2,-137r87,0v-25,413,-43,868,-52,1365r-89,0v17,-232,27,-454,31,-665r-930,0r-16,491r-2,174r-88,0","w":1435},"I":{"d":"149,0r22,-401r20,-601r5,-363r90,0r-18,362r-24,745r-5,258r-90,0","w":426},"J":{"d":"-44,-84v205,70,467,63,529,-112v43,-121,33,-157,41,-398r12,-384r8,-387r90,0v-9,139,-17,273,-23,403r-18,428v-13,219,0,271,-47,379v-61,140,-230,194,-442,170v-40,-5,-88,-10,-141,-21v-2,-27,-5,-53,-9,-78","w":770},"K":{"d":"153,0v13,-207,24,-446,33,-718v9,-272,13,-467,13,-584r-1,-63r89,0r-21,437r-22,765v-1,49,-2,104,-2,163r-89,0xm270,-725r310,-325r282,-315r105,0r-602,635r656,730r-115,0r-104,-128r-92,-105","w":1032},"L":{"d":"147,0r21,-317r26,-717r6,-331r89,0r-36,780r-19,522r508,-1v55,-1,109,-4,162,-7v-3,27,-4,50,-4,71r-753,0","w":923},"M":{"d":"121,0r21,-185r58,-734r31,-446r129,0r44,135r342,959r72,194r528,-1168r49,-120r130,0r-10,579v-1,131,-2,228,-2,291v0,209,2,374,6,495r-94,0r20,-1161r0,-132r-170,373r-406,920r-106,0r-467,-1286r-83,1146v-1,32,-2,78,-3,140r-89,0","w":1687},"N":{"d":"149,0r23,-394r28,-810r3,-161r121,0r83,131r651,939r159,224r43,-1139r3,-155r83,0r-19,314r-32,854r-4,197r-121,0r-183,-272r-634,-912r-74,-101r-41,1041r-5,244r-84,0","w":1486},"O":{"d":"106,-648v0,-455,264,-738,725,-738v422,0,669,248,669,672v0,457,-254,735,-710,735v-424,0,-684,-241,-684,-669xm1425,-698v0,-390,-208,-626,-597,-626v-417,0,-646,262,-646,676v0,382,224,607,614,607v410,0,629,-249,629,-657","w":1593},"P":{"d":"498,-718v245,2,416,-109,416,-343v0,-179,-103,-239,-317,-240r-314,-2v-9,159,-18,385,-27,680v-9,295,-14,467,-14,518r1,105r-94,0v9,-113,17,-250,24,-411r19,-498v6,-171,9,-323,9,-456r422,0v239,-13,367,88,367,301v0,323,-308,461,-648,390v-5,-19,-12,-40,-20,-62v61,12,120,18,176,18","w":1028},"Q":{"d":"1500,-700v0,333,-136,533,-363,650v148,-9,221,-32,342,-71v-6,27,-11,57,-14,88v-118,15,-211,26,-279,33v-68,7,-133,10,-196,16v-530,47,-888,-162,-884,-660v4,-458,264,-742,723,-742v425,0,671,256,671,686xm1426,-704v2,-390,-211,-620,-598,-620v-411,0,-646,262,-646,666v0,389,221,617,607,617v409,0,635,-250,637,-663","w":1593},"R":{"d":"352,-737v287,57,545,-41,545,-318v0,-142,-71,-228,-206,-241v-134,-14,-259,0,-410,-7v-22,527,-35,962,-38,1303r-94,0r16,-242r29,-753r5,-370r427,0v177,-1,251,41,310,145v26,46,37,99,37,159v0,261,-198,414,-484,395r479,666r-104,0r-131,-198","w":1038},"S":{"d":"408,20v-140,0,-200,-20,-332,-62v0,-26,-2,-56,-6,-90v126,61,241,91,345,91v197,0,356,-117,301,-317v-19,-71,-56,-100,-118,-158r-197,-169r-79,-66v-91,-91,-206,-161,-206,-332v0,-206,166,-304,396,-303v62,0,141,9,237,27v1,25,4,53,9,84v-137,-46,-304,-76,-432,-17v-88,41,-165,143,-125,264v51,152,205,235,317,340v117,110,285,182,285,399v0,215,-174,309,-395,309","w":905},"T":{"d":"417,0r15,-249r39,-1054v-165,0,-308,3,-430,9v3,-27,5,-51,5,-71r933,0v-3,27,-5,50,-5,71v-82,-7,-269,-10,-426,-9r-41,1147r0,156r-90,0","w":965},"U":{"d":"237,-471v-12,309,168,430,458,430v247,0,424,-90,468,-293v39,-179,34,-438,46,-646v9,-155,10,-283,10,-385r88,0r-26,455v-24,292,15,640,-150,795v-158,148,-578,180,-783,53v-120,-75,-186,-178,-186,-373v0,-59,2,-128,6,-207r23,-534v2,-62,3,-125,3,-189r91,0","w":1441},"V":{"d":"548,0r-56,-180r-427,-1185r90,0r58,185r397,1119r543,-1069r111,-235r94,0v-60,108,-138,257,-235,447r-262,511v-78,151,-145,287,-200,407r-113,0","w":1301},"W":{"d":"548,0r-418,-1230v-11,-31,-28,-76,-51,-135r99,0r52,179r371,1108r50,-94r354,-708r-93,-276r-74,-209r83,0v38,135,80,268,127,400r174,-400r93,0r-126,257r-108,231r15,51r226,663r34,91r61,-121r495,-1056r51,-116r91,0v-37,71,-111,223,-222,455r-257,537r-172,373r-104,0r-263,-787r-393,787r-95,0","w":2017},"X":{"d":"-23,0v81,-95,266,-329,556,-702r-455,-663r103,0r116,184r285,420r387,-494r77,-110r101,0r-455,571r-69,90r475,704r-101,0r-147,-232r-279,-410r-202,256r-222,292r-68,94r-102,0","w":1151},"Y":{"d":"408,0r30,-433r10,-186r-134,-238r-296,-508r90,0r43,81r341,596r239,-358r202,-319r92,0r-504,750r-22,476r-2,139r-89,0","w":987},"Z":{"d":"54,0v3,-33,4,-64,4,-92r898,-1211r-625,1v-58,2,-122,5,-192,9v2,-24,3,-47,3,-72r888,0v-3,29,-4,60,-4,91r-823,1112r-72,101r667,-1v50,-1,107,-3,173,-8v-2,24,-3,46,-3,70r-914,0","w":1095},"[":{"d":"266,-1365r287,0v-3,18,-4,36,-5,54r-205,0r-34,852r-26,848r207,0v-2,18,-3,36,-3,55v-41,-1,-89,-2,-142,-2v-53,0,-101,1,-142,2r36,-911","w":609},"\\":{"d":"940,444v-35,-3,-52,-3,-88,0r-98,-233r-698,-1576r87,0r65,158r502,1139","w":824},"]":{"d":"317,444v-45,-1,-93,-2,-143,-2v-50,0,-98,1,-143,2v3,-18,4,-36,5,-55r205,0r49,-1322r11,-378r-208,0v3,-18,4,-36,4,-54v41,1,89,2,142,2v53,0,100,-1,142,-2r-36,910","w":609},"^":{"d":"166,-791r-81,0r386,-575r91,0r385,575r-83,0r-350,-522","w":1032},"_":{"d":"4,161r1024,0r0,67r-1024,0r0,-67","w":1032},"`":{"d":"580,-1137v-10,-3,-31,-3,-41,0r-164,-279r116,0","w":1024},"a":{"d":"822,-800v0,-217,-350,-190,-529,-144v-29,8,-66,22,-111,40v5,-23,8,-49,11,-78v119,-32,199,-49,329,-49v201,0,373,48,370,247v0,33,-2,75,-4,126r-20,384r-5,274r-84,0v9,-102,15,-185,19,-248r19,-409v-90,79,-149,91,-293,131v-154,42,-254,68,-344,149v-38,34,-60,79,-60,142v0,236,346,228,535,155v-6,25,-11,51,-15,76v-260,56,-595,41,-595,-232v0,-211,195,-260,367,-315v23,-8,230,-57,288,-85v63,-30,122,-87,122,-164","w":1021},"b":{"d":"590,20v-206,0,-327,-96,-375,-262r-2,242r-81,0r8,-99r29,-824r11,-442r85,0v-7,75,-12,150,-15,224r-7,156v125,-32,201,-43,332,-46v328,-6,490,176,490,489v0,320,-147,562,-475,562xm990,-550v0,-266,-139,-428,-407,-425v-133,1,-222,22,-342,61v-5,135,-9,223,-12,264v-3,41,-4,88,-4,143v0,281,96,472,360,472v287,0,405,-234,405,-515","w":1158},"c":{"d":"587,-975v-289,0,-412,217,-419,504v-8,312,194,475,512,427v37,-6,84,-19,142,-36v-7,27,-11,53,-14,76v-85,17,-164,25,-237,25v-311,2,-478,-181,-478,-489v0,-329,149,-563,501,-563v90,0,176,12,257,37v1,22,3,45,7,70v-111,-33,-163,-51,-271,-51","w":937},"d":{"d":"93,-441v0,-372,240,-591,626,-590v69,0,144,7,225,22v3,-63,5,-124,5,-182v0,-51,-1,-109,-3,-174r83,0v-7,125,-13,255,-17,392r-22,850r0,123r-79,0r15,-254v-62,168,-181,275,-399,275v-277,0,-434,-179,-434,-462xm168,-440v-8,274,190,463,472,390v156,-41,241,-173,273,-341v26,-133,21,-383,28,-549v-79,-25,-136,-34,-222,-35v-343,-2,-541,207,-551,535","w":1156},"e":{"d":"174,-584v-33,325,106,549,410,549v89,0,189,-21,298,-62v-5,25,-9,50,-12,75v-98,28,-172,42,-284,43v-328,3,-493,-192,-493,-510v0,-313,162,-539,479,-542v265,-3,413,167,393,446xm183,-639r711,1v1,-223,-101,-337,-313,-337v-234,0,-359,132,-398,336","w":1032},"f":{"d":"454,-1339v-142,0,-199,75,-200,224v0,8,-1,43,-3,105r298,0v-3,17,-4,36,-5,56r-295,0r-23,954r-83,0r18,-354r18,-600r-127,0v3,-18,4,-37,5,-56r124,0v7,-156,-1,-171,26,-254v43,-134,243,-153,409,-111v1,20,4,43,9,69v-63,-22,-120,-33,-171,-33","w":513},"g":{"d":"93,-417v0,-389,238,-616,640,-614v91,0,202,12,332,35r-16,201r-23,458v-17,232,20,512,-83,663v-124,182,-495,185,-757,118v-1,-27,-4,-54,-7,-79v285,98,707,111,753,-192v20,-132,21,-262,27,-424v-62,174,-198,270,-425,274v-284,5,-441,-162,-441,-440xm168,-432v-6,240,129,398,364,399v251,2,370,-148,417,-350v35,-149,28,-385,36,-566v-101,-19,-159,-25,-253,-26v-359,-7,-555,203,-564,543","w":1185},"h":{"d":"976,-699v0,-285,-341,-332,-551,-227v-121,60,-174,177,-191,350v-12,114,-18,416,-22,576r-78,0r30,-652r18,-713r77,0r-27,584v68,-161,197,-247,420,-250v246,-3,405,100,394,363r-28,668r-81,0v8,-86,13,-173,18,-260r14,-244v5,-75,7,-140,7,-195","w":1180},"i":{"d":"170,-1266r3,-99r102,0r-3,99v-33,-3,-69,-3,-102,0xm134,0v7,-100,16,-274,26,-523v10,-249,14,-411,14,-487r81,0v-9,127,-18,299,-27,518v-9,219,-14,383,-14,492r-80,0","w":382},"j":{"d":"166,-1266r2,-99r102,0r-3,99v-33,-3,-69,-3,-101,0xm248,-1010r-21,439r-17,445v-15,267,3,316,-49,452v-41,106,-146,160,-301,158v-65,0,-140,-10,-224,-30v-1,-21,-3,-46,-7,-76v180,76,420,77,469,-91v42,-146,38,-204,47,-466r25,-745r0,-86r78,0","w":383},"k":{"d":"130,0v9,-137,17,-288,22,-455r16,-509v5,-173,8,-306,8,-401r82,0r-12,200r-33,947r-4,218r-79,0xm232,-561r357,-345r97,-104r103,0r-353,335v-32,29,-71,67,-118,114r362,391r162,170r-101,0r-211,-237","w":853},"l":{"d":"127,0v31,-556,49,-1011,54,-1365r82,0r-25,487r-29,878r-82,0","w":383},"m":{"d":"1488,-739v0,-259,-322,-283,-468,-155v-66,57,-98,117,-119,226v-28,147,-25,473,-33,668r-80,0r27,-520v4,-163,28,-302,-53,-383v-61,-61,-199,-85,-302,-45v-127,49,-195,141,-225,294v-25,122,-35,503,-35,654r-80,0r16,-218r26,-667v1,-49,1,-90,1,-125r77,0r-10,210v66,-138,167,-231,357,-231v170,0,275,76,304,227v61,-133,170,-227,358,-227v180,0,322,88,312,271r-23,432v-6,122,-8,231,-9,328r-80,0r33,-569v4,-69,6,-125,6,-170","w":1691},"n":{"d":"966,-700v0,-198,-136,-270,-327,-270v-197,0,-311,83,-374,222v-68,151,-58,524,-65,748r-80,0r34,-611r11,-399r77,0r-13,228v63,-163,198,-247,419,-249v228,-2,395,92,385,321r-24,547r-4,163r-77,0r30,-495v5,-95,8,-163,8,-205","w":1167},"o":{"d":"563,20v-307,-3,-470,-189,-470,-497v0,-221,87,-414,239,-491v80,-41,166,-63,257,-63v307,-1,470,187,470,492v0,328,-160,562,-496,559xm564,-35v291,0,418,-209,420,-503v2,-270,-128,-440,-397,-437v-177,2,-317,93,-371,235v-30,80,-48,166,-48,261v2,266,134,444,396,444","w":1152},"p":{"d":"582,20v-207,0,-305,-84,-379,-238r-16,564v0,23,0,55,1,98r-82,0r12,-202r32,-906r7,-304v212,-59,472,-100,669,-14v140,62,228,241,225,443v-4,312,-159,559,-469,559xm975,-535v0,-263,-130,-438,-388,-440v-111,0,-229,23,-353,69v-9,77,-20,375,-21,452v-5,257,130,421,370,421v266,0,392,-230,392,-502","w":1145},"q":{"d":"93,-433v0,-421,294,-644,757,-592r166,25r-15,217r-20,632r-12,595r-81,0r18,-375r10,-316v-60,131,-131,200,-267,247v-43,15,-88,20,-135,20v-267,0,-421,-179,-421,-453xm168,-427v-4,264,188,449,457,377v159,-43,251,-180,285,-352v17,-87,22,-433,22,-543v-88,-21,-132,-29,-216,-30v-344,-2,-542,210,-548,548","w":1136},"r":{"d":"218,-821v61,-154,202,-236,411,-200v0,23,1,45,4,68v-257,-67,-394,91,-415,334v-13,152,-17,484,-18,619r-80,0v8,-141,16,-306,23,-496v7,-190,11,-331,11,-424r-1,-90r74,0","w":644},"s":{"d":"640,-218v0,189,-191,261,-406,233v-79,-10,-104,-14,-174,-34v-1,-32,-4,-60,-8,-85v86,39,172,58,277,63v165,8,293,-107,223,-257v-41,-87,-133,-137,-204,-199v-90,-79,-170,-134,-214,-242v-9,-22,-11,-44,-11,-67v0,-155,136,-228,315,-225v59,0,125,8,198,23v1,29,3,58,6,85v-155,-80,-501,-67,-441,157v29,108,110,144,199,220r92,78v71,66,148,123,148,250","w":736},"t":{"d":"224,-270v-17,165,46,258,204,230v20,-3,56,-10,105,-23v-5,20,-9,41,-12,63v-54,13,-104,20,-149,20v-157,0,-228,-79,-220,-239r37,-737r-123,0v3,-18,4,-36,5,-54r122,0v3,-42,6,-105,8,-188v25,-3,47,-8,66,-13v-5,108,-7,175,-7,201r300,0v-3,18,-4,36,-5,54r-298,0","w":564},"u":{"d":"200,-314v0,254,234,317,462,262v167,-41,248,-154,277,-336v19,-121,27,-463,27,-622r79,0r-37,700r-6,310r-74,0r8,-217v-61,161,-196,237,-410,237v-235,0,-397,-97,-392,-336v0,-41,5,-142,14,-302v9,-160,13,-291,13,-392r78,0v-8,67,-39,624,-39,696","w":1165},"v":{"d":"391,0v-37,-109,-81,-230,-131,-363r-242,-647r90,0r43,133r293,820r377,-868r33,-85r90,0r-403,882r-54,128r-96,0","w":921},"w":{"d":"384,0r-46,-139r-320,-871r82,0r40,123r156,440r109,293r41,102r96,-244r266,-714r93,0r266,958v168,-365,308,-684,419,-958r81,0r-389,859r-64,151r-111,0r-47,-187r-177,-646r-33,-105r-33,80r-290,782v-4,10,-12,35,-25,76r-114,0","w":1644},"x":{"d":"-30,0r405,-550r-291,-460r87,0v61,107,144,240,250,399v127,-169,223,-302,286,-399r90,0r-342,458r358,552r-94,0v-24,-44,-44,-79,-59,-104r-115,-185r-133,-204v-119,158,-236,322,-350,493r-92,0","w":851},"y":{"d":"-85,387v73,37,182,54,259,7v33,-20,67,-59,101,-118v34,-59,74,-141,119,-245r-220,-613r-158,-428r95,0r43,154r280,804r316,-704v29,-65,49,-111,60,-140v11,-29,25,-67,41,-114r91,0r-378,818r-187,412v-73,156,-124,265,-324,265v-42,0,-86,-7,-132,-20v0,-22,-2,-48,-6,-78","w":912},"z":{"d":"38,0v2,-30,3,-59,3,-87r123,-156r476,-624r61,-83v-77,-2,-147,-3,-212,-3v-130,0,-256,3,-377,10v2,-24,3,-46,3,-67r657,0v-2,22,-3,55,-3,87r-659,862v185,8,480,3,620,-8v-3,27,-4,50,-4,69r-688,0","w":838},"{":{"d":"376,-265v0,-98,-40,-151,-117,-170v3,-15,4,-32,5,-49v87,-32,126,-83,128,-207r6,-327v2,-157,5,-223,79,-292v47,-44,101,-56,196,-55v-3,18,-4,36,-5,54v-154,8,-197,78,-200,241r-4,280v-3,164,-5,286,-124,331v75,34,104,99,104,211v0,155,-48,427,0,555v23,60,85,80,167,82v-3,20,-4,38,-4,55v-187,-3,-251,-72,-251,-272v0,-55,20,-383,20,-437","w":784},"|":{"d":"482,-1365r68,0r0,1706r-68,0r0,-1706","w":1032},"}":{"d":"379,-660v-5,98,43,155,116,176v-3,19,-4,35,-4,50v-118,40,-129,112,-129,287v0,242,54,557,-198,585v-16,3,-43,5,-80,6v3,-18,4,-36,5,-55v136,-8,181,-60,196,-203v20,-196,-61,-576,130,-645v-149,-46,-98,-293,-92,-469r7,-192v5,-137,-55,-184,-181,-190v0,-17,-2,-36,-5,-55v175,-6,265,74,257,244","w":784},"~":{"d":"526,-718v-147,-45,-218,51,-279,158r-48,-31v72,-126,120,-202,261,-202v165,0,294,162,455,162v116,0,152,-70,211,-165r49,29v-60,119,-162,231,-338,189v-84,-20,-194,-104,-311,-140","w":1374},"\u00c7":{"d":"182,-667v0,389,216,626,604,626v110,0,233,-22,369,-65v-5,23,-10,51,-13,82v-113,28,-230,45,-352,45v-422,0,-684,-248,-684,-673v0,-496,318,-776,850,-729v92,8,119,13,206,31v1,27,4,56,9,86v-123,-40,-208,-60,-343,-60v-406,0,-646,257,-646,657xm820,105v-78,151,-124,243,-138,276r-143,0r217,-276v21,1,44,1,64,0","w":1250},"\u00d6":{"d":"911,-1583r3,-99r102,0r-3,99r-102,0xm659,-1583r3,-99r102,0r-3,99r-102,0xm106,-648v0,-455,264,-738,725,-738v422,0,669,248,669,672v0,457,-254,735,-710,735v-424,0,-684,-241,-684,-669xm1425,-698v0,-390,-208,-626,-597,-626v-417,0,-646,262,-646,676v0,382,224,607,614,607v410,0,629,-249,629,-657","w":1593},"\u00dc":{"d":"842,-1583r3,-99r102,0r-3,99r-102,0xm590,-1583r3,-99r102,0r-3,99r-102,0xm237,-471v-12,309,168,430,458,430v247,0,424,-90,468,-293v39,-179,34,-438,46,-646v9,-155,10,-283,10,-385r88,0r-26,455v-24,292,15,640,-150,795v-158,148,-578,180,-783,53v-120,-75,-186,-178,-186,-373v0,-59,2,-128,6,-207r23,-534v2,-62,3,-125,3,-189r91,0","w":1441},"\u00e7":{"d":"587,-975v-289,0,-412,217,-419,504v-8,312,194,475,512,427v37,-6,84,-19,142,-36v-7,27,-11,53,-14,76v-85,17,-164,25,-237,25v-311,2,-478,-181,-478,-489v0,-329,149,-563,501,-563v90,0,176,12,257,37v1,22,3,45,7,70v-111,-33,-163,-51,-271,-51xm608,102r-122,240r-133,0r208,-240v20,1,28,1,47,0","w":937},"\u00f6":{"d":"677,-1227r3,-99r102,0r-3,99r-102,0xm425,-1227r3,-99r102,0r-3,99r-102,0xm563,20v-307,-3,-470,-189,-470,-497v0,-221,87,-414,239,-491v80,-41,166,-63,257,-63v307,-1,470,187,470,492v0,328,-160,562,-496,559xm564,-35v291,0,418,-209,420,-503v2,-270,-128,-440,-397,-437v-177,2,-317,93,-371,235v-30,80,-48,166,-48,261v2,266,134,444,396,444","w":1152},"\u00fc":{"d":"687,-1227r3,-99r102,0r-3,99r-102,0xm435,-1227r3,-99r102,0r-3,99r-102,0xm204,-314v0,254,234,317,462,262v167,-41,248,-154,277,-336v19,-121,27,-463,27,-622r79,0r-37,700r-6,310r-74,0r8,-217v-61,161,-196,237,-410,237v-235,0,-397,-97,-392,-336v0,-41,5,-142,14,-302v9,-160,13,-291,13,-392r78,0v-8,67,-39,624,-39,696","w":1169},"\u20ac":{"d":"748,20v-387,-1,-588,-217,-609,-593r-98,0r10,-62r86,0r2,-96r-98,0r10,-62r92,0v43,-395,258,-593,645,-593v87,0,180,12,279,36r10,80v-116,-41,-215,-61,-297,-61v-333,0,-519,179,-559,538r746,0r-11,62r-739,0v-2,17,-2,66,-2,96r731,0r-10,62r-719,0v25,359,197,538,518,538v91,0,199,-22,326,-65r-12,75v-121,30,-222,45,-301,45","w":1114},"\u0131":{"d":"134,0v7,-100,16,-274,26,-523v10,-249,14,-411,14,-487r81,0v-9,127,-18,299,-27,518v-9,219,-14,383,-14,492r-80,0","w":382},"\u00a0":{"w":512}}});


